FANN_FLO_2.1
num_layers=3
learning_rate=0.700000
connection_rate=1.000000
network_type=0
learning_momentum=0.000000
training_algorithm=2
train_error_function=1
train_stop_function=0
cascade_output_change_fraction=0.010000
quickprop_decay=-0.000100
quickprop_mu=1.750000
rprop_increase_factor=1.200000
rprop_decrease_factor=0.500000
rprop_delta_min=0.000000
rprop_delta_max=50.000000
rprop_delta_zero=0.100000
cascade_output_stagnation_epochs=12
cascade_candidate_change_fraction=0.010000
cascade_candidate_stagnation_epochs=12
cascade_max_out_epochs=150
cascade_max_cand_epochs=150
cascade_num_candidate_groups=2
bit_fail_limit=3.49999994039535522461e-01
cascade_candidate_limit=1.00000000000000000000e+03
cascade_weight_multiplier=4.00000005960464477539e-01
cascade_activation_functions_count=10
cascade_activation_functions=3 5 7 8 10 11 14 15 16 17 
cascade_activation_steepnesses_count=4
cascade_activation_steepnesses=2.50000000000000000000e-01 5.00000000000000000000e-01 7.50000000000000000000e-01 1.00000000000000000000e+00 
layer_sizes=31 31 2 
scale_included=0
neurons (num_inputs, activation_function, activation_steepness)=(0, 0, 0.00000000000000000000e+00) (0, 0, 0.00000000000000000000e+00) (0, 0, 0.00000000000000000000e+00) (0, 0, 0.00000000000000000000e+00) (0, 0, 0.00000000000000000000e+00) (0, 0, 0.00000000000000000000e+00) (0, 0, 0.00000000000000000000e+00) (0, 0, 0.00000000000000000000e+00) (0, 0, 0.00000000000000000000e+00) (0, 0, 0.00000000000000000000e+00) (0, 0, 0.00000000000000000000e+00) (0, 0, 0.00000000000000000000e+00) (0, 0, 0.00000000000000000000e+00) (0, 0, 0.00000000000000000000e+00) (0, 0, 0.00000000000000000000e+00) (0, 0, 0.00000000000000000000e+00) (0, 0, 0.00000000000000000000e+00) (0, 0, 0.00000000000000000000e+00) (0, 0, 0.00000000000000000000e+00) (0, 0, 0.00000000000000000000e+00) (0, 0, 0.00000000000000000000e+00) (0, 0, 0.00000000000000000000e+00) (0, 0, 0.00000000000000000000e+00) (0, 0, 0.00000000000000000000e+00) (0, 0, 0.00000000000000000000e+00) (0, 0, 0.00000000000000000000e+00) (0, 0, 0.00000000000000000000e+00) (0, 0, 0.00000000000000000000e+00) (0, 0, 0.00000000000000000000e+00) (0, 0, 0.00000000000000000000e+00) (0, 0, 0.00000000000000000000e+00) (31, 5, 5.00000000000000000000e-01) (31, 5, 5.00000000000000000000e-01) (31, 5, 5.00000000000000000000e-01) (31, 5, 5.00000000000000000000e-01) (31, 5, 5.00000000000000000000e-01) (31, 5, 5.00000000000000000000e-01) (31, 5, 5.00000000000000000000e-01) (31, 5, 5.00000000000000000000e-01) (31, 5, 5.00000000000000000000e-01) (31, 5, 5.00000000000000000000e-01) (31, 5, 5.00000000000000000000e-01) (31, 5, 5.00000000000000000000e-01) (31, 5, 5.00000000000000000000e-01) (31, 5, 5.00000000000000000000e-01) (31, 5, 5.00000000000000000000e-01) (31, 5, 5.00000000000000000000e-01) (31, 5, 5.00000000000000000000e-01) (31, 5, 5.00000000000000000000e-01) (31, 5, 5.00000000000000000000e-01) (31, 5, 5.00000000000000000000e-01) (31, 5, 5.00000000000000000000e-01) (31, 5, 5.00000000000000000000e-01) (31, 5, 5.00000000000000000000e-01) (31, 5, 5.00000000000000000000e-01) (31, 5, 5.00000000000000000000e-01) (31, 5, 5.00000000000000000000e-01) (31, 5, 5.00000000000000000000e-01) (31, 5, 5.00000000000000000000e-01) (31, 5, 5.00000000000000000000e-01) (31, 5, 5.00000000000000000000e-01) (0, 5, 0.00000000000000000000e+00) (31, 0, 5.00000000000000000000e-01) (0, 0, 0.00000000000000000000e+00) 
connections (connected_to_neuron, weight)=(0, 6.18657376617193222046e-03) (1, 2.57710069417953491211e-02) (2, -1.23183419927954673767e-02) (3, -1.52713984251022338867e-01) (4, 3.62577342987060546875e+00) (5, 1.45000116899609565735e-02) (6, 4.86433774232864379883e-01) (7, 1.50000000000000000000e+03) (8, -5.62983751296997070312e-01) (9, 1.40464380383491516113e-01) (10, 1.50000000000000000000e+03) (11, 1.36700598523020744324e-02) (12, -1.21185217285156250000e+03) (13, -1.90006509423255920410e-01) (14, -3.14697951078414916992e-01) (15, -2.03617787361145019531e+00) (16, 7.14548645019531250000e+01) (17, 3.66864912211894989014e-02) (18, -6.14840030670166015625e-01) (19, -5.36664485931396484375e-01) (20, -1.06893482208251953125e+01) (21, -1.57905463129281997681e-03) (22, -1.41524538397789001465e-01) (23, -2.48408198356628417969e+00) (24, -3.01972515881061553955e-02) (25, 1.50000000000000000000e+03) (26, -6.93858265876770019531e-02) (27, 1.50000000000000000000e+03) (28, -1.69943347573280334473e-01) (29, 9.53226661682128906250e+00) (30, 4.44502569735050201416e-02) (0, -3.09792423248291015625e+00) (1, 1.07851475477218627930e-01) (2, 5.21484166383743286133e-02) (3, -3.07286903262138366699e-03) (4, -4.02668548583984375000e+02) (5, 1.04270540177822113037e-01) (6, -2.33564272522926330566e-01) (7, 1.50000000000000000000e+03) (8, 5.99983749389648437500e+01) (9, 6.35942816734313964844e-01) (10, 1.50000000000000000000e+03) (11, 2.07194099426269531250e+01) (12, -1.49999987792968750000e+03) (13, -4.42754974365234375000e+01) (14, 1.50000000000000000000e+03) (15, 1.03342132568359375000e+02) (16, 6.98566467285156250000e+02) (17, -4.88701438903808593750e+00) (18, -1.85677261352539062500e+02) (19, -1.30945953369140625000e+02) (20, 6.25097839355468750000e+02) (21, 1.02845400571823120117e-01) (22, -6.40051543712615966797e-01) (23, -1.49953576660156250000e+03) (24, 1.70484945178031921387e-01) (25, 1.50000000000000000000e+03) (26, 3.02520215511322021484e-01) (27, 1.50000000000000000000e+03) (28, -1.55432901382446289062e+01) (29, -3.03026332855224609375e+01) (30, 1.93909868597984313965e-01) (0, -2.22761893272399902344e+00) (1, 5.52120983600616455078e-01) (2, 6.25343024730682373047e-01) (3, 7.95542895793914794922e-01) (4, 1.92070426940917968750e+01) (5, 5.44701755046844482422e-01) (6, 8.63710284233093261719e-01) (7, 1.50000000000000000000e+03) (8, -5.26143112182617187500e+01) (9, 6.14317715167999267578e-01) (10, -1.45678906250000000000e+03) (11, 2.50312252044677734375e+01) (12, -5.76310363769531250000e+02) (13, -1.75105726718902587891e+00) (14, -1.44263641357421875000e+02) (15, 1.28326757812500000000e+03) (16, 1.49973681640625000000e+03) (17, 3.31020921468734741211e-01) (18, 2.26330280303955078125e+01) (19, -8.20325279235839843750e+00) (20, 1.29828796386718750000e+02) (21, 6.85494899749755859375e-01) (22, 1.20312929153442382812e+00) (23, 1.50000000000000000000e+03) (24, 6.00667238235473632812e-01) (25, 1.50000000000000000000e+03) (26, 1.02875433862209320068e-01) (27, 1.50000000000000000000e+03) (28, -1.81881022453308105469e+00) (29, -3.27537512779235839844e+00) (30, 6.05322420597076416016e-01) (0, -7.28259992599487304688e+00) (1, 2.64366894960403442383e-01) (2, 9.72881615161895751953e-02) (3, -1.33108943700790405273e-01) (4, 2.53040676116943359375e+01) (5, 3.81561517715454101562e-01) (6, 1.06426548957824707031e+00) (7, 1.50000000000000000000e+03) (8, -1.02657151222229003906e+00) (9, 9.27179813385009765625e-01) (10, 1.50000000000000000000e+03) (11, 2.27584576606750488281e+00) (12, -1.49999987792968750000e+03) (13, -2.53127050399780273438e+00) (14, 1.50000000000000000000e+03) (15, 6.93541183471679687500e+01) (16, 4.62795776367187500000e+02) (17, -3.79868388175964355469e-01) (18, 2.79843902587890625000e+01) (19, -3.42325401306152343750e+00) (20, 2.21233779907226562500e+02) (21, 4.79181371629238128662e-02) (22, 2.81396448612213134766e-01) (23, -9.10684738159179687500e+01) (24, 4.22452576458454132080e-02) (25, 1.50000000000000000000e+03) (26, 1.45027205348014831543e-01) (27, 1.50000000000000000000e+03) (28, -8.70343399047851562500e+00) (29, -3.43834781646728515625e+00) (30, 1.84891194105148315430e-01) (0, 9.17208731174468994141e-01) (1, -1.80882662534713745117e-01) (2, -1.49843813851475715637e-02) (3, -1.92639157176017761230e-01) (4, -1.25313186645507812500e+02) (5, -1.40601083636283874512e-01) (6, -1.46820336580276489258e-01) (7, 1.50000000000000000000e+03) (8, 1.66534960269927978516e+00) (9, -2.67868906259536743164e-01) (10, -1.01485565185546875000e+02) (11, -3.88212740421295166016e-01) (12, 9.76897418498992919922e-01) (13, 7.56692826747894287109e-01) (14, -1.50000000000000000000e+03) (15, 2.84499450683593750000e+02) (16, -7.19460678100585937500e+01) (17, 4.22273904085159301758e-01) (18, 1.50794720649719238281e+00) (19, 1.37613821029663085938e+01) (20, -3.00187072753906250000e+01) (21, -1.41130955889821052551e-02) (22, -2.55952596664428710938e-01) (23, 2.41151466369628906250e+01) (24, -2.30446085333824157715e-01) (25, 1.50000000000000000000e+03) (26, 7.96726644039154052734e-01) (27, 1.50000000000000000000e+03) (28, 2.44273853302001953125e+00) (29, 1.47042977809906005859e+00) (30, -1.30298301577568054199e-01) (0, 1.78331363201141357422e+00) (1, 2.97834463417530059814e-02) (2, 5.37920743227005004883e-02) (3, 3.25333297252655029297e-01) (4, 3.21846733093261718750e+01) (5, 2.52960830926895141602e-01) (6, 3.03827118873596191406e+00) (7, 1.50000000000000000000e+03) (8, -1.14597196578979492188e+01) (9, -3.16883611679077148438e+00) (10, -2.49208724975585937500e+02) (11, -4.05405998229980468750e+00) (12, 2.15012969970703125000e+02) (13, 2.15660905838012695312e+00) (14, -1.49282092285156250000e+03) (15, -1.60636154174804687500e+02) (16, -6.95179901123046875000e+01) (17, 7.44169831275939941406e-01) (18, 1.00433292388916015625e+01) (19, 1.28453941345214843750e+01) (20, -3.82566619873046875000e+02) (21, 1.15727894008159637451e-01) (22, 4.67118531465530395508e-01) (23, 1.23352661132812500000e+03) (24, 2.40087285637855529785e-01) (25, 1.50000000000000000000e+03) (26, 1.06792956590652465820e-01) (27, 1.50000000000000000000e+03) (28, 4.33854436874389648438e+00) (29, 4.00483131408691406250e+00) (30, 1.16464398801326751709e-01) (0, -2.23804998397827148438e+00) (1, 7.58588850498199462891e-01) (2, 7.23276436328887939453e-01) (3, 6.00210487842559814453e-01) (4, 1.60178642272949218750e+01) (5, 5.59298515319824218750e-01) (6, 4.59687024354934692383e-01) (7, 1.50000000000000000000e+03) (8, 7.06002349853515625000e+01) (9, 1.56046843528747558594e+00) (10, 1.50000000000000000000e+03) (11, 9.02970492839813232422e-01) (12, -1.64481613159179687500e+02) (13, -2.12348484992980957031e+00) (14, 1.50000000000000000000e+03) (15, 1.19350524902343750000e+03) (16, 1.49996154785156250000e+03) (17, 2.87829607725143432617e-01) (18, -2.31863665580749511719e+00) (19, -7.52272510528564453125e+00) (20, -1.91043640136718750000e+02) (21, 5.27008771896362304688e-01) (22, -7.43869781494140625000e-01) (23, -1.01447973632812500000e+03) (24, 6.79892897605895996094e-01) (25, 1.50000000000000000000e+03) (26, 7.03973591327667236328e-01) (27, 1.50000000000000000000e+03) (28, -2.18130183219909667969e+00) (29, -1.50565254688262939453e+00) (30, 7.09940850734710693359e-01) (0, 2.74511528015136718750e+00) (1, 5.73673367500305175781e-01) (2, 5.58282434940338134766e-01) (3, 8.27187955379486083984e-01) (4, 7.66798522949218750000e+02) (5, 7.45040893554687500000e-01) (6, 1.18026077747344970703e+00) (7, 1.50000000000000000000e+03) (8, -4.73220672607421875000e+01) (9, 6.17862999439239501953e-01) (10, -9.46887695312500000000e+02) (11, 8.25446033477783203125e+00) (12, 1.50000000000000000000e+03) (13, 3.79450249671936035156e+00) (14, -1.49282092285156250000e+03) (15, -1.82849319458007812500e+02) (16, -5.89062927246093750000e+02) (17, 4.04786720275878906250e+01) (18, 2.83692352294921875000e+02) (19, 4.69707155227661132812e+00) (20, -2.22572064399719238281e+00) (21, 6.91440284252166748047e-01) (22, 3.38795471191406250000e+00) (23, 1.50000000000000000000e+03) (24, 5.58080136775970458984e-01) (25, 1.50000000000000000000e+03) (26, 8.92313480377197265625e-01) (27, 1.50000000000000000000e+03) (28, 1.62235558032989501953e+00) (29, 1.27379951477050781250e+02) (30, 5.96479594707489013672e-01) (0, -2.28562760353088378906e+00) (1, 5.62092840671539306641e-01) (2, 6.71014904975891113281e-01) (3, 5.09659230709075927734e-01) (4, 3.72302856445312500000e+01) (5, 5.48399090766906738281e-01) (6, 3.25993150472640991211e-01) (7, 1.50000000000000000000e+03) (8, 6.01464309692382812500e+01) (9, 1.26319634914398193359e+00) (10, 1.50000000000000000000e+03) (11, -1.51248908042907714844e+00) (12, -1.49999987792968750000e+03) (13, -2.27083945274353027344e+00) (14, 1.50000000000000000000e+03) (15, 1.19361682128906250000e+03) (16, 1.49996203613281250000e+03) (17, 2.42066726088523864746e-01) (18, -9.56914138793945312500e+00) (19, -7.63807487487792968750e+00) (20, -2.99793434143066406250e+01) (21, 5.80491960048675537109e-01) (22, -1.30174565315246582031e+00) (23, -7.47312316894531250000e+02) (24, 6.92222654819488525391e-01) (25, 1.50000000000000000000e+03) (26, 6.82409882545471191406e-01) (27, 1.50000000000000000000e+03) (28, -2.26906514167785644531e+00) (29, -2.20148324966430664062e+00) (30, 6.18576765060424804688e-01) (0, 5.79119148254394531250e+01) (1, 1.12586569786071777344e+00) (2, 4.56802189350128173828e-01) (3, 2.65421414375305175781e+00) (4, 1.38219375610351562500e+02) (5, -1.12028211355209350586e-01) (6, 7.96549606323242187500e+00) (7, 1.50000000000000000000e+03) (8, 5.92857131958007812500e+01) (9, -8.35805475711822509766e-01) (10, 1.50000000000000000000e+03) (11, 1.41557750701904296875e+01) (12, -1.49999987792968750000e+03) (13, 6.34037895202636718750e+01) (14, 1.50000000000000000000e+03) (15, -8.52819091796875000000e+02) (16, -4.18858718872070312500e+01) (17, 7.85680437088012695312e+00) (18, 8.85831420898437500000e+02) (19, 1.87071640014648437500e+02) (20, -1.00667089843750000000e+03) (21, 1.73536434769630432129e-01) (22, -5.44037818908691406250e-01) (23, -1.49953576660156250000e+03) (24, 3.18866461515426635742e-01) (25, 1.50000000000000000000e+03) (26, 6.94403707981109619141e-01) (27, 1.50000000000000000000e+03) (28, 5.33809890747070312500e+01) (29, 2.62616481781005859375e+01) (30, 4.73112344741821289062e-01) (0, 7.57094398140907287598e-02) (1, 1.85291506350040435791e-02) (2, 7.98828434199094772339e-04) (3, 3.34800849668681621552e-03) (4, -1.05569664001464843750e+02) (5, 8.76501318998634815216e-04) (6, -1.34290605783462524414e-01) (7, 1.50000000000000000000e+03) (8, 3.49417477846145629883e-01) (9, -6.03857450187206268311e-03) (10, 3.79281501770019531250e+01) (11, 6.18178863078355789185e-03) (12, 1.27448440551757812500e+02) (13, 2.51741297543048858643e-02) (14, 7.18469810485839843750e+00) (15, 6.51290833950042724609e-01) (16, -4.34537429809570312500e+01) (17, 6.57419860363006591797e-01) (18, -1.26757478713989257812e+00) (19, -2.73063749074935913086e-01) (20, -3.33210716247558593750e+01) (21, 7.31275156140327453613e-02) (22, 1.37440115213394165039e-01) (23, -5.48268203735351562500e+01) (24, -2.79385428875684738159e-02) (25, 1.50000000000000000000e+03) (26, -1.96903154253959655762e-01) (27, 1.50000000000000000000e+03) (28, -4.87029218673706054688e+00) (29, -1.83183401823043823242e-01) (30, 9.02669783681631088257e-03) (0, 5.00690650939941406250e+00) (1, 5.14418184757232666016e-01) (2, 5.57987928390502929688e-01) (3, 7.41531014442443847656e-01) (4, 7.15893310546875000000e+02) (5, 6.14996254444122314453e-01) (6, 8.64809513092041015625e-01) (7, 1.50000000000000000000e+03) (8, -1.53699331283569335938e+01) (9, -6.58151358366012573242e-02) (10, -8.53227966308593750000e+02) (11, -9.96253299713134765625e+00) (12, 1.50000000000000000000e+03) (13, 4.54029893875122070312e+00) (14, -1.48839758300781250000e+03) (15, -9.19742370605468750000e+02) (16, -9.49348144531250000000e+02) (17, 1.95236694812774658203e+00) (18, 3.55012145996093750000e+02) (19, 2.24711933135986328125e+01) (20, 1.49999389648437500000e+03) (21, 5.61385333538055419922e-01) (22, 7.87575101852416992188e+00) (23, 1.50000000000000000000e+03) (24, 5.54827988147735595703e-01) (25, 1.50000000000000000000e+03) (26, 9.69586133956909179688e-01) (27, 1.50000000000000000000e+03) (28, 5.02360486984252929688e+00) (29, 5.46520614624023437500e+01) (30, 4.24216419458389282227e-01) (0, -2.91273921728134155273e-01) (1, 4.61293384432792663574e-02) (2, 3.77521174959838390350e-03) (3, 1.47021025419235229492e-01) (4, 5.51316976547241210938e+00) (5, 2.58810073137283325195e-02) (6, 4.03377145528793334961e-01) (7, 1.50000000000000000000e+03) (8, -5.46842277050018310547e-01) (9, 1.09983287751674652100e-01) (10, 3.69539031982421875000e+01) (11, -6.91570267081260681152e-02) (12, -2.86817133426666259766e-01) (13, -9.46568995714187622070e-02) (14, -1.27488207817077636719e+00) (15, -3.59602499008178710938e+00) (16, 6.05875396728515625000e+01) (17, 1.41303807497024536133e-01) (18, -2.01109266281127929688e+00) (19, -4.59323078393936157227e-01) (20, -2.37485466003417968750e+01) (21, 2.51815542578697204590e-02) (22, -2.50791367143392562866e-02) (23, -5.90344810485839843750e+00) (24, -1.03520467877388000488e-01) (25, 1.50000000000000000000e+03) (26, 2.19055548310279846191e-01) (27, 1.50000000000000000000e+03) (28, -1.65611815452575683594e+00) (29, 2.10696721076965332031e+00) (30, 2.04056978225708007812e-01) (0, -2.37309861183166503906e+00) (1, 7.54846394062042236328e-01) (2, 6.79962456226348876953e-01) (3, 6.25849723815917968750e-01) (4, 2.58801002502441406250e+01) (5, 5.54782092571258544922e-01) (6, 4.68330413103103637695e-01) (7, 1.50000000000000000000e+03) (8, -1.51532554626464843750e+01) (9, 1.13519823551177978516e+00) (10, -7.69972351074218750000e+02) (11, -2.93667288497090339661e-03) (12, -1.49993481445312500000e+03) (13, -2.18012857437133789062e+00) (14, -3.67357421875000000000e+02) (15, 1.19133520507812500000e+03) (16, 1.49998400878906250000e+03) (17, 1.03528253734111785889e-01) (18, -3.96878361701965332031e+00) (19, -8.28532409667968750000e+00) (20, -1.18921638488769531250e+02) (21, 5.60370206832885742188e-01) (22, 1.75022240728139877319e-02) (23, -9.04344116210937500000e+02) (24, 6.71470165252685546875e-01) (25, 1.50000000000000000000e+03) (26, 6.40187859535217285156e-01) (27, 1.50000000000000000000e+03) (28, -2.07567739486694335938e+00) (29, -7.54500150680541992188e+00) (30, 6.98179781436920166016e-01) (0, 2.52166032791137695312e-01) (1, -6.77202688530087471008e-03) (2, -4.93975169956684112549e-03) (3, -2.94817145913839340210e-02) (4, -4.06018877029418945312e+00) (5, -7.20406398177146911621e-02) (6, -5.06701529026031494141e-01) (7, 1.50000000000000000000e+03) (8, 5.33458113670349121094e-01) (9, -7.83542096614837646484e-02) (10, 8.42291259765625000000e+00) (11, 1.23672568798065185547e+00) (12, 9.34521794319152832031e-01) (13, 4.87339615821838378906e-01) (14, 1.47516756057739257812e+01) (15, 2.39807834625244140625e+01) (16, -1.42287750244140625000e+02) (17, -1.84698663651943206787e-02) (18, 3.36214661598205566406e-01) (19, 2.86271393299102783203e-01) (20, 2.70334672927856445312e+00) (21, 3.21500860154628753662e-02) (22, -7.49959886074066162109e-01) (23, 2.05114293098449707031e+00) (24, -1.61452945321798324585e-02) (25, 1.50000000000000000000e+03) (26, 4.59288746118545532227e-01) (27, 1.50000000000000000000e+03) (28, 3.92515778541564941406e-01) (29, -2.77217835187911987305e-01) (30, -3.91811095178127288818e-02) (0, -7.78018116950988769531e-01) (1, 3.50013263523578643799e-02) (2, -1.17537220939993858337e-02) (3, -2.56769955158233642578e-01) (4, 1.73505954742431640625e+01) (5, -4.64798957109451293945e-02) (6, -4.01524096727371215820e-01) (7, 1.50000000000000000000e+03) (8, -2.62125641107559204102e-01) (9, 1.17860725149512290955e-02) (10, 1.50000000000000000000e+03) (11, 2.00478304177522659302e-02) (12, -1.49326123046875000000e+03) (13, -3.74679833650588989258e-01) (14, 1.50000000000000000000e+03) (15, 1.69534942626953125000e+02) (16, 4.78905975341796875000e+02) (17, -3.93882542848587036133e-01) (18, 1.88241410255432128906e+00) (19, -2.38695573806762695312e+00) (20, -5.28970756530761718750e+01) (21, 1.48483878001570701599e-02) (22, 3.30559420585632324219e+00) (23, 1.97871208190917968750e+01) (24, -7.09677413105964660645e-02) (25, 1.50000000000000000000e+03) (26, -3.60171288251876831055e-01) (27, 1.50000000000000000000e+03) (28, -5.51846790313720703125e+00) (29, 1.95404357910156250000e+01) (30, 6.90147951245307922363e-02) (0, 2.14482575654983520508e-01) (1, -1.72917731106281280518e-02) (2, -2.23429296165704727173e-02) (3, -3.01761150360107421875e-01) (4, -3.59686911106109619141e-01) (5, -1.02061107754707336426e-02) (6, -1.75861284136772155762e-01) (7, 1.50000000000000000000e+03) (8, 1.23898081481456756592e-01) (9, 2.34187662601470947266e-01) (10, 2.20208663940429687500e+01) (11, -1.41743952408432960510e-02) (12, 1.40698289871215820312e+00) (13, 2.41253599524497985840e-02) (14, 1.60807743072509765625e+01) (15, -7.22913682460784912109e-01) (16, -3.83456459045410156250e+01) (17, -5.57074621319770812988e-02) (18, -1.04284681379795074463e-01) (19, 5.90002834796905517578e-01) (20, 3.05314683914184570312e+00) (21, -3.39622353203594684601e-03) (22, -2.31951009482145309448e-02) (23, 4.74704933166503906250e+00) (24, -3.29646244645118713379e-02) (25, 1.50000000000000000000e+03) (26, -6.97520300745964050293e-02) (27, 1.50000000000000000000e+03) (28, 7.21673250198364257812e-01) (29, -1.82724869251251220703e+00) (30, -5.44366613030433654785e-02) (0, -7.01462221145629882812e+00) (1, -5.51369749009609222412e-02) (2, 1.23508810997009277344e-01) (3, -6.81269727647304534912e-03) (4, -3.88459350585937500000e+02) (5, -3.68249751627445220947e-02) (6, -5.31636714935302734375e-01) (7, 1.50000000000000000000e+03) (8, 2.39543781280517578125e+01) (9, 6.92913770675659179688e-01) (10, 1.12387329101562500000e+03) (11, 8.84076118469238281250e+00) (12, -1.49999987792968750000e+03) (13, -1.29457244873046875000e+01) (14, 1.50000000000000000000e+03) (15, 6.66280899047851562500e+01) (16, 6.86548400878906250000e+02) (17, -8.96746158599853515625e+00) (18, -1.96759460449218750000e+02) (19, -9.70157051086425781250e+00) (20, 1.44808654785156250000e+03) (21, 8.09008926153182983398e-02) (22, 6.27402961254119873047e-01) (23, -1.49358398437500000000e+03) (24, 2.55587529391050338745e-02) (25, 1.50000000000000000000e+03) (26, 2.41137901321053504944e-03) (27, 1.50000000000000000000e+03) (28, -6.51810979843139648438e+00) (29, -5.62720832824707031250e+01) (30, 1.26025915145874023438e-01) (0, 2.92395919561386108398e-01) (1, -3.24552394449710845947e-02) (2, 3.27623827615752816200e-04) (3, -4.79109100997447967529e-02) (4, 1.67614006996154785156e+00) (5, 8.33856612443923950195e-02) (6, -2.58902847766876220703e-01) (7, 1.50000000000000000000e+03) (8, -2.34792351722717285156e+00) (9, 5.26830315589904785156e-01) (10, -1.34358367919921875000e+01) (11, -4.23766747117042541504e-02) (12, 8.55910122394561767578e-01) (13, 1.20926603674888610840e-01) (14, -2.36469697952270507812e+00) (15, 5.74397697448730468750e+01) (16, -2.17799110412597656250e+01) (17, 1.14654429256916046143e-01) (18, 1.49075257778167724609e+00) (19, 2.64699697494506835938e-01) (20, 1.15083336830139160156e+00) (21, -1.62943475879728794098e-03) (22, 3.35224904119968414307e-02) (23, 8.45731067657470703125e+00) (24, -9.51439514756202697754e-02) (25, 1.50000000000000000000e+03) (26, 9.69030633568763732910e-02) (27, 1.50000000000000000000e+03) (28, 2.76471763849258422852e-01) (29, -1.56581401824951171875e+00) (30, -7.24785998463630676270e-02) (0, 1.76251128315925598145e-01) (1, -8.53620097041130065918e-02) (2, -5.83113217726349830627e-03) (3, -1.04521542787551879883e-01) (4, -1.66706061363220214844e+00) (5, -5.70809608325362205505e-03) (6, -3.16086918115615844727e-01) (7, 1.50000000000000000000e+03) (8, 3.54082286357879638672e-02) (9, -1.73136743251234292984e-03) (10, -2.17112960815429687500e+01) (11, -5.54382465779781341553e-02) (12, 3.03113162517547607422e-01) (13, 2.68210709095001220703e-01) (14, 3.98877487182617187500e+01) (15, -1.55959510803222656250e+00) (16, -1.79350433349609375000e+01) (17, -3.53896230459213256836e-01) (18, -2.14007115364074707031e+00) (19, 1.49054169654846191406e-01) (20, 1.10980498790740966797e+00) (21, -4.48256777599453926086e-03) (22, -4.16735606268048286438e-03) (23, -2.54532217979431152344e+00) (24, -3.46978604793548583984e-02) (25, 1.50000000000000000000e+03) (26, 4.44081537425518035889e-02) (27, 1.50000000000000000000e+03) (28, -1.07541763782501220703e+00) (29, -3.84096455574035644531e+00) (30, -1.83789104223251342773e-01) (0, -2.42160463333129882812e+00) (1, 6.56397998332977294922e-01) (2, 6.83330237865447998047e-01) (3, 5.60838699340820312500e-01) (4, -1.27316951751708984375e-01) (5, 5.00423669815063476562e-01) (6, 4.31395739316940307617e-01) (7, 1.50000000000000000000e+03) (8, 6.00146446228027343750e+01) (9, 1.30618083477020263672e+00) (10, 1.50000000000000000000e+03) (11, -7.31086730957031250000e-01) (12, -4.87586090087890625000e+02) (13, -2.12424921989440917969e+00) (14, 1.50000000000000000000e+03) (15, 1.19357214355468750000e+03) (16, 7.01396118164062500000e+02) (17, 3.23162078857421875000e-01) (18, -4.80913019180297851562e+00) (19, -8.24194717407226562500e+00) (20, -5.16246566772460937500e+01) (21, 5.26825606822967529297e-01) (22, -3.38298350572586059570e-01) (23, -8.20946899414062500000e+02) (24, 6.74218952655792236328e-01) (25, 1.50000000000000000000e+03) (26, 7.21472978591918945312e-01) (27, 1.50000000000000000000e+03) (28, -2.26465964317321777344e+00) (29, 2.47290897369384765625e+00) (30, 7.00731039047241210938e-01) (0, -2.21421718597412109375e+00) (1, 5.02740979194641113281e-01) (2, 4.76886570453643798828e-01) (3, 4.18009966611862182617e-01) (4, 4.00903396606445312500e+01) (5, 6.95004820823669433594e-01) (6, 1.14292359352111816406e+00) (7, 1.50000000000000000000e+03) (8, -3.40990996360778808594e+00) (9, 7.23019540309906005859e-01) (10, -1.49930114746093750000e+03) (11, 1.11770965158939361572e-01) (12, 1.10604760742187500000e+03) (13, -1.71517050266265869141e+00) (14, -9.33040283203125000000e+02) (15, 1.38593554687500000000e+03) (16, 1.40963220214843750000e+03) (17, -1.58325862139463424683e-02) (18, 9.59167003631591796875e+00) (19, -8.06414031982421875000e+00) (20, 8.46839111328125000000e+02) (21, 3.28411132097244262695e-01) (22, 2.00602340698242187500e+00) (23, -9.13088684082031250000e+02) (24, 6.64976477622985839844e-01) (25, 1.50000000000000000000e+03) (26, 5.52079439163208007812e-01) (27, 1.50000000000000000000e+03) (28, -1.97770249843597412109e+00) (29, 9.81376266479492187500e+00) (30, 5.67960917949676513672e-01) (0, 8.06021839380264282227e-02) (1, -1.40065141022205352783e-02) (2, -1.37154022231698036194e-02) (3, -2.01558142900466918945e-01) (4, -6.11169099807739257812e-01) (5, -1.36302085593342781067e-03) (6, -1.50500327348709106445e-01) (7, 1.50000000000000000000e+03) (8, -5.47342412173748016357e-02) (9, -3.13895829021930694580e-02) (10, -1.50000000000000000000e+03) (11, 5.52243351936340332031e-01) (12, 9.17932701110839843750e+00) (13, 2.95605570077896118164e-01) (14, 3.26353683471679687500e+01) (15, -1.64230136871337890625e+01) (16, -9.60818710327148437500e+01) (17, 4.57379609346389770508e-01) (18, 1.16950225830078125000e+00) (19, 1.18801996111869812012e-01) (20, -1.04871263504028320312e+01) (21, -2.53918357193470001221e-02) (22, -1.09059944748878479004e-01) (23, -6.26182212829589843750e+01) (24, -2.66043394804000854492e-02) (25, 1.50000000000000000000e+03) (26, 2.49026224017143249512e-01) (27, 1.50000000000000000000e+03) (28, 3.22017997503280639648e-01) (29, -1.03101563453674316406e+00) (30, -1.85032457113265991211e-01) (0, -1.19201707839965820312e+00) (1, 5.07975399494171142578e-01) (2, 3.63106042146682739258e-01) (3, 4.97941106557846069336e-01) (4, 1.48574926757812500000e+03) (5, 5.64944803714752197266e-01) (6, 1.29449856281280517578e+00) (7, 1.50000000000000000000e+03) (8, -4.40029239654541015625e+00) (9, -3.76447975635528564453e-01) (10, 1.84836288452148437500e+02) (11, 3.53783071041107177734e-02) (12, 1.50000000000000000000e+03) (13, -2.68493384122848510742e-01) (14, -1.49895959472656250000e+03) (15, -6.30675888061523437500e+01) (16, -1.39548355102539062500e+02) (17, 8.00750255584716796875e-01) (18, 1.06240531921386718750e+02) (19, 1.23800811767578125000e+01) (20, 7.40535461425781250000e+02) (21, 5.80737292766571044922e-01) (22, 1.31084501743316650391e+00) (23, 1.50000000000000000000e+03) (24, 3.83200883865356445312e-01) (25, 1.50000000000000000000e+03) (26, 3.69496554136276245117e-01) (27, 1.50000000000000000000e+03) (28, -3.81216979026794433594e+00) (29, 1.57284097671508789062e+01) (30, 4.80114251375198364258e-01) (0, -3.13951969146728515625e+00) (1, -4.13943920284509658813e-03) (2, 2.08823122084140777588e-02) (3, -7.51866176724433898926e-02) (4, -6.40536437988281250000e+02) (5, -2.51271482557058334351e-02) (6, -3.95025849342346191406e-01) (7, 1.50000000000000000000e+03) (8, 3.83609733581542968750e+01) (9, 7.66515433788299560547e-01) (10, 1.50000000000000000000e+03) (11, 2.46968555450439453125e+01) (12, -1.49999987792968750000e+03) (13, -1.86642894744873046875e+01) (14, 1.50000000000000000000e+03) (15, -5.88097724914550781250e+01) (16, 6.87957641601562500000e+02) (17, -4.98447561264038085938e+00) (18, -2.52002792358398437500e+02) (19, -1.29990737915039062500e+02) (20, 1.45478979492187500000e+03) (21, 9.67110395431518554688e-02) (22, -1.34599351882934570312e+01) (23, -1.49953576660156250000e+03) (24, 2.06533223390579223633e-01) (25, 1.50000000000000000000e+03) (26, 3.01033705472946166992e-01) (27, 1.50000000000000000000e+03) (28, -1.52005109786987304688e+01) (29, -4.15607757568359375000e+01) (30, 3.00489217042922973633e-02) (0, 1.08135983347892761230e-01) (1, 4.03560362756252288818e-02) (2, 5.12701235711574554443e-02) (3, -2.07599967718124389648e-01) (4, -3.61739807128906250000e+01) (5, 2.48134478926658630371e-01) (6, -1.08092343807220458984e+00) (7, 1.50000000000000000000e+03) (8, 9.31655883789062500000e-01) (9, 9.23483744263648986816e-02) (10, 1.50000000000000000000e+03) (11, -5.01909017562866210938e-01) (12, 3.43767364501953125000e+02) (13, 1.98496222496032714844e-01) (14, 7.01994781494140625000e+01) (15, -7.55374603271484375000e+01) (16, -7.95685668945312500000e+02) (17, 2.78963118791580200195e-01) (18, -8.30597341060638427734e-01) (19, 2.69360160827636718750e+00) (20, -1.37620468139648437500e+02) (21, 3.75245586037635803223e-02) (22, -7.28072643280029296875e+00) (23, -1.49980651855468750000e+03) (24, -5.74376210570335388184e-02) (25, 1.50000000000000000000e+03) (26, 2.89129376411437988281e-01) (27, 1.50000000000000000000e+03) (28, 2.70137071609497070312e+00) (29, 9.09984874725341796875e+00) (30, 1.47907063364982604980e-01) (0, -3.13168454170227050781e+00) (1, 1.57677188515663146973e-01) (2, 2.19418615102767944336e-01) (3, -9.19762328267097473145e-02) (4, -8.85059448242187500000e+02) (5, -6.80516660213470458984e-03) (6, -5.34145236015319824219e-01) (7, 1.50000000000000000000e+03) (8, 5.96869964599609375000e+01) (9, 7.69318997859954833984e-01) (10, 1.18994079589843750000e+03) (11, 3.15322704315185546875e+01) (12, -1.49999987792968750000e+03) (13, -1.05532310485839843750e+02) (14, 1.50000000000000000000e+03) (15, 1.16123376464843750000e+03) (16, 6.74126464843750000000e+02) (17, -4.85857057571411132812e+00) (18, -1.84474380493164062500e+02) (19, -1.30876388549804687500e+02) (20, 3.53694152832031250000e+02) (21, -3.99169623851776123047e-02) (22, 4.53943538665771484375e+00) (23, -1.49953576660156250000e+03) (24, 1.41662418842315673828e-01) (25, 1.50000000000000000000e+03) (26, 3.13727438449859619141e-01) (27, 1.50000000000000000000e+03) (28, -6.49741125106811523438e+00) (29, -5.19183120727539062500e+01) (30, 1.06269873678684234619e-01) (0, -1.59675197601318359375e+01) (1, 3.10388002544641494751e-02) (2, 1.17478787899017333984e-01) (3, -2.26032808423042297363e-01) (4, -4.03467193603515625000e+02) (5, 8.57907310128211975098e-02) (6, -3.77857029438018798828e-01) (7, 1.50000000000000000000e+03) (8, 1.32142776489257812500e+02) (9, 8.07918846607208251953e-01) (10, 1.50000000000000000000e+03) (11, -1.23041963577270507812e+01) (12, -1.49999987792968750000e+03) (13, -7.96543884277343750000e+00) (14, 1.50000000000000000000e+03) (15, 8.47715454101562500000e+01) (16, 6.65977416992187500000e+02) (17, -8.49508953094482421875e+00) (18, -6.15899414062500000000e+02) (19, -5.45318489074707031250e+01) (20, 5.73161071777343750000e+02) (21, -3.85652445256710052490e-02) (22, -1.74158024787902832031e+00) (23, -1.49980651855468750000e+03) (24, 1.79527118802070617676e-01) (25, 1.50000000000000000000e+03) (26, 1.95625320076942443848e-01) (27, 1.50000000000000000000e+03) (28, -1.53202409744262695312e+01) (29, -2.12087890625000000000e+02) (30, 1.92874968051910400391e-01) (0, -7.04998064041137695312e+00) (1, 9.72199961543083190918e-02) (2, 6.10880553722381591797e-02) (3, -2.54819571971893310547e-01) (4, -6.29352172851562500000e+02) (5, 1.60443276166915893555e-01) (6, -2.64255225658416748047e-01) (7, 1.50000000000000000000e+03) (8, 5.98791542053222656250e+01) (9, 8.45708906650543212891e-01) (10, 4.58207000732421875000e+02) (11, 2.33301410675048828125e+01) (12, -1.49999987792968750000e+03) (13, -1.86198101043701171875e+01) (14, 6.38866271972656250000e+02) (15, -8.48222885131835937500e+01) (16, 4.89686859130859375000e+02) (17, -4.84831953048706054688e+00) (18, -1.74432403564453125000e+02) (19, -1.30577041625976562500e+02) (20, 1.36830639648437500000e+03) (21, 9.91697311401367187500e-02) (22, -2.42623043060302734375e+00) (23, -1.49953576660156250000e+03) (24, 1.38232767581939697266e-01) (25, 1.50000000000000000000e+03) (26, 3.33886593580245971680e-01) (27, 1.50000000000000000000e+03) (28, -3.63244476318359375000e+01) (29, -4.97328338623046875000e+01) (30, 1.51538759469985961914e-01) (0, -6.93798494338989257812e+00) (1, 4.31661531329154968262e-02) (2, 1.90435737371444702148e-01) (3, -1.68305918574333190918e-01) (4, -4.19034759521484375000e+02) (5, 9.89372655749320983887e-02) (6, 2.44021266698837280273e-02) (7, 1.50000000000000000000e+03) (8, 5.91850318908691406250e+01) (9, 8.44459354877471923828e-01) (10, 1.50000000000000000000e+03) (11, 2.73846836090087890625e+01) (12, -1.49999987792968750000e+03) (13, -4.42613372802734375000e+01) (14, 1.50000000000000000000e+03) (15, 2.55707290649414062500e+02) (16, 6.98586791992187500000e+02) (17, -3.13292121887207031250e+00) (18, -1.67634521484375000000e+02) (19, -1.30959426879882812500e+02) (20, 1.34436608886718750000e+03) (21, -1.01021729409694671631e-01) (22, -1.23585665225982666016e+00) (23, -1.49953576660156250000e+03) (24, 1.38252452015876770020e-01) (25, 1.50000000000000000000e+03) (26, 1.96770861744880676270e-01) (27, 1.50000000000000000000e+03) (28, -3.69740676879882812500e+01) (29, -2.94394073486328125000e+01) (30, 1.28300085663795471191e-01) (31, 2.12184473872184753418e-01) (32, 6.02477416396141052246e-02) (33, -3.19700501859188079834e-03) (34, 8.67962613701820373535e-02) (35, -1.42418071627616882324e-01) (36, -4.74830046296119689941e-02) (37, 2.39529415965080261230e-01) (38, -1.10272414982318878174e-01) (39, 9.29031297564506530762e-02) (40, 1.70585617423057556152e-01) (41, -2.76099801063537597656e-01) (42, -4.51825931668281555176e-02) (43, 2.19748109579086303711e-01) (44, -5.25254048407077789307e-02) (45, -5.23613095283508300781e-02) (46, 2.81842470169067382812e-01) (47, -1.82710021734237670898e-01) (48, 5.38455955684185028076e-02) (49, -1.22470825910568237305e-01) (50, -4.14023488759994506836e-01) (51, 4.27029430866241455078e-01) (52, -2.54986621439456939697e-03) (53, -9.96520295739173889160e-02) (54, -8.44272449612617492676e-02) (55, 9.26488358527421951294e-03) (56, 4.02176193892955780029e-02) (57, 4.02286916971206665039e-01) (58, 4.67767268419265747070e-02) (59, 4.08887028694152832031e-01) (60, 3.64813208580017089844e-02) (61, 6.31618916988372802734e-01) 
